<?xml version="1.0" encoding="utf-8"?>
<Root>
  <ActivationFunctions>
    <Fn id="0" name="SteepenedSigmoid" prob="1" />
  </ActivationFunctions>
  <Networks>
    <Network id="36861" birthGen="1" fitness="18">
      <Nodes>
        <Node type="bias" id="0" />
        <Node type="in" id="1" />
        <Node type="in" id="2" />
        <Node type="in" id="3" />
        <Node type="out" id="4" />
        <Node type="hid" id="19" />
        <Node type="hid" id="60" />
        <Node type="hid" id="75" />
        <Node type="hid" id="94" />
      </Nodes>
      <Connections>
        <Con id="10" src="1" tgt="4" wght="3.7213192315162575" rwSrcFlag="False" rwTgtFlag="False" rwSrcId="4294967295" rwTgtId="4294967295" />
        <Con id="11" src="3" tgt="4" wght="4.049031655632489" rwSrcFlag="False" rwTgtFlag="False" rwSrcId="4294967295" rwTgtId="4294967295" />
        <Con id="21" src="19" tgt="4" wght="-5" rwSrcFlag="False" rwTgtFlag="False" rwSrcId="4294967295" rwTgtId="4294967295" />
        <Con id="38" src="1" tgt="19" wght="-3.1862098670568471" rwSrcFlag="False" rwTgtFlag="False" rwSrcId="4294967295" rwTgtId="4294967295" />
        <Con id="46" src="2" tgt="19" wght="-4.0386114244451852" rwSrcFlag="False" rwTgtFlag="False" rwSrcId="4294967295" rwTgtId="4294967295" />
        <Con id="61" src="0" tgt="60" wght="-2.326069270318301" rwSrcFlag="False" rwTgtFlag="False" rwSrcId="4294967295" rwTgtId="4294967295" />
        <Con id="62" src="60" tgt="4" wght="2.1146225903268734" rwSrcFlag="False" rwTgtFlag="False" rwSrcId="4294967295" rwTgtId="4294967295" />
        <Con id="74" src="19" tgt="60" wght="-1.0228784427723534" rwSrcFlag="False" rwTgtFlag="False" rwSrcId="4294967295" rwTgtId="4294967295" />
        <Con id="76" src="3" tgt="75" wght="-0.923437568997721" rwSrcFlag="True" rwTgtFlag="False" rwSrcId="98" rwTgtId="4294967295" />
        <Con id="77" src="75" tgt="19" wght="4.9925213007281535" rwSrcFlag="False" rwTgtFlag="False" rwSrcId="4294967295" rwTgtId="4294967295" />
        <Con id="81" src="3" tgt="60" wght="0.18559772016336407" rwSrcFlag="False" rwTgtFlag="False" rwSrcId="4294967295" rwTgtId="4294967295" />
        <Con id="82" src="1" tgt="60" wght="-1.5231945454333649" rwSrcFlag="False" rwTgtFlag="False" rwSrcId="4294967295" rwTgtId="4294967295" />
        <Con id="83" src="2" tgt="60" wght="-3.1081453163174291" rwSrcFlag="False" rwTgtFlag="False" rwSrcId="4294967295" rwTgtId="4294967295" />
        <Con id="87" src="3" tgt="19" wght="-2.2139325208008973" rwSrcFlag="False" rwTgtFlag="False" rwSrcId="4294967295" rwTgtId="4294967295" />
        <Con id="95" src="2" tgt="94" wght="-1.7059324800293538" rwSrcFlag="False" rwTgtFlag="False" rwSrcId="4294967295" rwTgtId="4294967295" />
        <Con id="96" src="94" tgt="4" wght="-5" rwSrcFlag="False" rwTgtFlag="False" rwSrcId="4294967295" rwTgtId="4294967295" />
        <Con id="97" src="0" tgt="75" wght="0.40959082132345764" rwSrcFlag="False" rwTgtFlag="False" rwSrcId="4294967295" rwTgtId="4294967295" />
        <Con id="98" src="2" tgt="75" wght="-5" rwSrcFlag="False" rwTgtFlag="True" rwSrcId="4294967295" rwTgtId="76" />
      </Connections>
    </Network>
  </Networks>
</Root>